-1.806255280971527100e-01 7.106436789035797119e-02 6.897502392530441284e-02 -3.024310991168022156e-02 -1.240336149930953979e-02 -7.523704320192337036e-02 -5.228754132986068726e-02 -7.236828655004501343e-02 1.381982415914535522e-01 -1.080422848463058472e-01 2.161869704723358154e-01 -1.713945344090461731e-02 -2.464221864938735962e-01 -1.425655484199523926e-01 -5.103498697280883789e-03 1.003745049238204956e-01 -1.506522446870803833e-01 -1.619835048913955688e-01 -9.280167520046234131e-02 -9.421196579933166504e-02 -2.878818660974502563e-02 6.574986502528190613e-03 4.571282118558883667e-02 -6.615462154150009155e-02 -9.690257906913757324e-02 -4.036948382854461670e-01 -9.489805996417999268e-02 -1.341226249933242798e-01 8.328576385974884033e-02 -7.838556915521621704e-02 -4.733093827962875366e-02 -3.471956402063369751e-02 -1.210224628448486328e-01 -7.976703345775604248e-02 2.071809396147727966e-02 1.343839019536972046e-01 -2.669514529407024384e-02 -3.596507012844085693e-02 2.198616266250610352e-01 3.386485576629638672e-02 -1.166269555687904358e-01 -6.038944423198699951e-02 5.601279065012931824e-02 2.871642410755157471e-01 2.233143150806427002e-01 8.222091943025588989e-02 6.929360330104827881e-03 -4.090858623385429382e-02 9.838076680898666382e-02 -2.585974335670471191e-01 1.107031479477882385e-01 1.177578717470169067e-01 1.686851829290390015e-01 4.509340971708297729e-02 1.957866698503494263e-01 -9.408751130104064941e-02 2.356234937906265259e-02 5.345972627401351929e-02 -1.785213500261306763e-01 6.758902221918106079e-02 2.324113994836807251e-02 -6.169785559177398682e-02 -4.031766206026077271e-02 -1.235467754304409027e-02 2.124209254980087280e-01 8.750626444816589355e-02 -7.032790780067443848e-02 -5.257775634527206421e-02 1.923523843288421631e-01 -2.042250484228134155e-01 -2.315979450941085815e-02 3.255386650562286377e-02 -5.256072431802749634e-02 -1.257066577672958374e-01 -2.646307349205017090e-01 2.301231957972049713e-02 3.989728987216949463e-01 1.779920458793640137e-01 -1.225736141204833984e-01 2.255047485232353210e-02 -1.394428312778472900e-02 -1.532834023237228394e-01 4.407414421439170837e-02 7.987377792596817017e-02 -1.533667147159576416e-01 1.225509867072105408e-02 -1.009093895554542542e-01 6.911620497703552246e-03 1.679649204015731812e-01 1.507165282964706421e-02 2.175550907850265503e-04 1.532760560512542725e-01 -2.467008307576179504e-02 6.324353069067001343e-02 7.219260931015014648e-02 -2.410465478897094727e-02 -1.209524273872375488e-01 -6.199477985501289368e-02 -7.269149273633956909e-02 -9.299094974994659424e-02 9.995150566101074219e-02 -1.515328437089920044e-01 2.903136610984802246e-02 9.004840254783630371e-02 -1.482286155223846436e-01 5.474282056093215942e-02 -4.440968856215476990e-02 -4.712881892919540405e-02 3.622655943036079407e-02 2.979321777820587158e-02 -5.103809759020805359e-03 -8.640204370021820068e-02 1.408695131540298462e-01 -1.762102693319320679e-01 1.179141476750373840e-01 2.215312719345092773e-01 -2.740922197699546814e-02 1.279002279043197632e-01 4.775853082537651062e-02 5.354425311088562012e-02 -3.634851425886154175e-03 3.711426630616188049e-02 -1.174369230866432190e-01 -9.234318137168884277e-02 -9.773232787847518921e-02 5.369800142943859100e-03 6.028084456920623779e-02 5.848237499594688416e-02
-7.797005027532577515e-02 1.130990684032440186e-01 3.722322359681129456e-02 -1.111351698637008667e-01 6.785560399293899536e-03 -3.243627771735191345e-02 3.700936213135719299e-03 -1.980392634868621826e-02 1.173773631453514099e-01 5.325803533196449280e-02 1.954453438520431519e-01 1.697798818349838257e-02 -2.637518644332885742e-01 -1.003865301609039307e-01 -1.294088736176490784e-02 9.810549020767211914e-02 -1.363117694854736328e-01 -9.710755944252014160e-02 -1.369020789861679077e-01 -1.012559086084365845e-01 -4.612156376242637634e-02 4.250458255410194397e-02 7.205334305763244629e-02 3.373818844556808472e-02 -9.258660674095153809e-02 -3.007654547691345215e-01 -7.813330739736557007e-02 -2.116293907165527344e-01 9.459132328629493713e-03 -1.356327235698699951e-01 4.462735354900360107e-02 -8.638571016490459442e-04 -2.230188101530075073e-01 -7.038523256778717041e-02 1.120954379439353943e-02 1.374995894730091095e-02 -7.105331867933273315e-02 -8.739387243986129761e-02 1.991868466138839722e-01 3.997756540775299072e-02 -1.150820851325988770e-01 4.988506436347961426e-02 6.882056593894958496e-02 2.255631387233734131e-01 2.664939761161804199e-01 2.546140924096107483e-02 2.751548774540424347e-02 -4.635788872838020325e-02 8.680000901222229004e-02 -2.379677295684814453e-01 1.211320459842681885e-01 1.182817369699478149e-01 4.603662341833114624e-02 1.200425028800964355e-01 5.507044121623039246e-02 -1.518786549568176270e-01 4.469975456595420837e-02 1.231620982289314270e-01 -2.108488529920578003e-01 9.997583925724029541e-02 3.874022513628005981e-02 -1.733439713716506958e-01 -7.345461100339889526e-02 2.332442998886108398e-02 1.666243523359298706e-01 9.609392285346984863e-02 -1.128030568361282349e-01 -1.328512281179428101e-01 1.466433107852935791e-01 -1.315147578716278076e-01 -2.312835678458213806e-02 7.532382011413574219e-02 -9.837229549884796143e-02 -1.252714693546295166e-01 -2.505686283111572266e-01 1.640563160181045532e-01 3.637055754661560059e-01 1.572866588830947876e-01 -1.301990151405334473e-01 7.437968254089355469e-02 -1.724089533090591431e-01 -1.299196202307939529e-02 -1.583800651133060455e-03 3.984935209155082703e-02 -5.731756240129470825e-02 -1.180803626775741577e-01 -9.618980437517166138e-02 1.683957874774932861e-02 1.495452523231506348e-01 2.131348242983222008e-03 -6.999418139457702637e-02 1.512533128261566162e-01 -9.910511225461959839e-02 3.145210817456245422e-02 2.270676195621490479e-02 6.127938255667686462e-02 -1.523015648126602173e-01 -9.240549057722091675e-03 -6.740838289260864258e-02 -2.739885449409484863e-02 4.047513008117675781e-02 -1.221808865666389465e-01 -3.246033936738967896e-02 5.284993723034858704e-02 -1.469738632440567017e-01 1.055511608719825745e-01 1.313404738903045654e-02 -5.973443761467933655e-02 -1.117229927331209183e-02 -1.134002953767776489e-02 -2.553000301122665405e-02 1.531154289841651917e-02 1.335827112197875977e-01 -2.596588432788848877e-01 3.757286965847015381e-01 1.607358753681182861e-01 2.859286218881607056e-02 1.649317443370819092e-01 1.133808121085166931e-01 7.542058080434799194e-02 -5.354939959943294525e-03 -4.708443582057952881e-02 -1.350999325513839722e-01 -1.048174872994422913e-01 4.936789721250534058e-02 1.090836748480796814e-01 1.113337352871894836e-01 4.480453953146934509e-02
